const model = {"neuronCounts":[5,10,8],"classes":["car","fish","house","tree","bicycle","guitar","pencil","clock"],"network":{"levels":[{"inputs":[0.18,0.44794188861985473,0.0813202658847764,0.7407592880819288,0.23283511919920077],"outputs":[0.5705788653043544,0.1867264946270755,-0.747934631737619,-1.3194442695124913,0.5936413075791073,0.4631609503766039,0.9825391661989731,-0.6891958764414297,0.05942710005118812,-0.9058494440988352],"biases":[0.651768347655918,0.21119418755738373,-0.24108954400227622,-0.5494528380207613,0.6245190123751838,0.1754587592392831,0.7806190796479269,-0.9291688235863131,0.6481988951708004,-0.5369141393499528],"weights":[[0.34478172149553177,0.9641053078900483,0.9239830086125249,0.4286288581773745,-0.17012258374211342,-0.8921521146195217,0.06705473305768539,0.5290830795437171,0.3548781632025739,0.16178321314924848],[0.829933363837758,-0.11888812642986313,-0.01818206219651497,-0.8479952532195334,-0.877732901373458,-0.060631896428527066,0.8095804604060244,-0.4164231222256134,-0.22099046535658506,0.05662242903514336],[-0.031388611114528064,-0.25911101506381806,-0.47581686991005934,-0.5619997625564224,0.013190026133130583,-0.10015325755328996,0.6361096240086035,-0.49190357020695785,0.6371191161745333,0.16042685885902896],[-0.5199233363718341,-0.00046400162898918573,-0.8099605191346952,-0.6572944405560246,0.5106997367127237,0.81735253530556,-0.10173220297935548,0.6943660395296807,-0.9286611944136132,-0.8453643899040824],[-0.5468313387396515,-0.5297181401681283,-0.11311949071359262,0.2804856135687126,0.05815060909180403,-0.5234083890993706,-0.6406434555002747,-0.6145336314459775,0.3540906179524985,0.814936030931646]]},{"inputs":[0.5705788653043544,0.1867264946270755,-0.747934631737619,-1.3194442695124913,0.5936413075791073,0.4631609503766039,0.9825391661989731,-0.6891958764414297,0.05942710005118812,-0.9058494440988352],"outputs":[2.2349950794489475,1.5722522684721656,0.5426635208259061,1.69422620651121,-0.3568484393678649,-1.5733076595229585,2.1831278206537363,-2.9682301656994445],"biases":[0.9055533555120068,0.667163022282756,0.9627780594779802,0.8331999229250497,0.1756466700521142,-0.5181214199844775,-0.21951585244426086,-0.6612955433581538],"weights":[[-0.8590157071958717,0.48827495351178696,-0.049641648478208955,0.39463721713956956,0.17138132340040002,0.014691984796919133,0.46297089690080684,-0.8871118530485231],[0.5732716287641797,-0.4461895209359432,-0.08814859836829414,0.6236231303998951,-0.859596093541898,0.07405837561579265,-0.4856942060033851,0.6030986361303308],[0.21830346350742258,-0.924024254568595,0.44959644579247815,-0.030898380798372704,-0.7392127766252252,0.812525679743054,-0.539096605384944,0.20095283843166678],[-0.5018878909604354,-0.6525252964322656,-0.2729808551127719,-0.0900523615494937,0.03155819838072782,0.8399775288677558,-0.8387874409788709,0.8496778196595107],[0.2954865374572133,-0.20123620407869147,-0.21220835370561608,-0.9729297146088174,-0.6194135331664343,-0.05383436860606383,0.9744369286000789,0.42058734638023676],[-0.3642491958693299,-0.706993299965313,-0.6527923712856016,0.9293980589389703,-0.4095903475930376,0.680069545665257,-0.426146308039163,-0.40233449361198903],[0.2609769446570407,-0.6956623093464653,-0.07081295411303778,0.6015686067805086,-0.3015175140165973,0.14984989845082208,-0.2501660383295832,-0.9736874554852653],[-0.5611721532801799,-0.4354361414806076,-0.4772967821339418,0.7849802811340127,0.33461476516528177,0.8643132746779822,-0.29687091851710945,-0.8675309081260361],[-0.0867688077833797,0.7779144118648584,0.8143109076679031,0.18469586600982013,0.41161126940587733,0.8119489596222216,0.9922603780872643,-0.23444522072468876],[-0.6279943721510837,0.06422252053751465,0.3076534278405221,-0.5117335159781908,-0.08699776440435203,-0.8343488279827223,-0.35366673458173725,0.3671607761070681]]}]}};