const model = {"neuronCounts":[5,10,8],"classes":["car","fish","house","tree","bicycle","guitar","pencil","clock"],"network":{"levels":[{"weights":[[-1.3649568086293376e-150,1.9436557793498788,-0.07742444286194407,-1.1527358896898119,-0.4383524605650711,-0.00000393051426496307,1.37782218210975,3.76557246026827e-131,-1.0394361766905968,0.12199058378639743],[8.754600775728023e-151,0.18903624879772962,-0.041158095960138835,2.644448773094611,-0.5866824429866918,0.1312308106991793,-1.8549941257468425,2.539203497624691e-156,1.7336908085077676,-1.0826546082914836],[-6.263162263498285e-99,2.270547512327479,-4.754922289517982e-18,-2.140922907575344,0.3499260805772168,0.38253651522120935,-2.2119830408656624,-4.3145295653893604e-73,1.7538609352982113,3.2536854712406376],[2.2619647450486135e-81,-2.0119799477723954,0.41836310418376915,1.251962386894556,0.13081869981781472,-0.00001970937966974602,2.263453684606626,-7.573109851883772e-93,-1.2711004058358315,-1.0368468031895008],[-3.950894586506784e-69,2.5937095132873935,-0.019316851723235908,1.7024934538308525,-0.37910558506571346,-0.006349620740738691,1.7429333861043255,-1.5598544163996836e-118,-1.2523598872112796,0.35561321317825445]],"biases":[-0.6079580527462108,1.184922955140431,-0.41090920139856735,-0.2633203308935831,-0.11397396176440443,-0.5773046660854166,0.6112438317796818,-0.44685693422048145,1.2344793492390704,1.6245668066850887],"inputs":[0.18,0.44794188861985473,0.0813202658847764,0.7407592880819288,0.23283511919920077],"outputs":[-0.6079580527462108,0.9176136070813403,-0.13787332260871732,1.8634491993378024,-0.4185848914281395,-0.488906639867947,1.9309336462033382,-0.44685693422048145,0.7334252147372513,0.7408946745307778]},{"weights":[[-3.181396404290268e-88,-2.5069607249772068e-151,9.543526548062686e-126,-2.265477883226627e-151,-5.628942006800099e-80,-4.2065930864984717e-162,1.867182039128594e-132,1.2342013658988037e-165],[1.008852934523435,-0.39258641175511816,-0.2437468444411236,-1.2015737104509132,0.08011208412170183,2.2980501578749353,1.1301513521410271,-3.400063987126767],[0.0000051948808772985325,-6.192895920451749e-11,2.127319070034912e-10,6.665825965482307e-14,2.4761876883127622e-8,1.2033200189625027e-10,8.584691354075729e-10,-0.008920563283957409],[-2.2253278289350114,-1.7549929482343387,1.0974337405613008,2.2776239309141046,-0.5652852522489734,-0.1260081817188149,-1.3158913931558747,1.8523969350031404],[-0.03712917280283444,0.0026620997716405937,-0.028475110922389482,-0.004605638318375035,0.018793306041133183,-0.0012136189775602743,-0.3573858534753612,0.01665948964145769],[-1.0240075923913909e-18,1.3570151097136516e-44,7.263228639731407e-24,4.2792282282036785e-60,1.7123828900562813e-40,2.6099954890553646e-31,-0.000014674446009396467,1.3563067098036069e-22],[1.3710457919863184,0.8092490918242865,0.2838196215396026,-0.4992231467017087,1.5139188029593265,-1.3652363546620583,-3.021375655124213,1.2302006544243107],[-6.319803165510867e-113,5.833632487559668e-84,5.889286508612502e-122,-6.294032331071157e-92,-8.246336330982069e-76,-2.151690118801875e-77,1.5984068496710043e-77,5.737415347664626e-113],[-3.359941867339969,0.7848890602543972,-0.4411853720706902,1.0085547615701624,-3.2861444289903936,1.2280044122804734,2.6871024080787187,-2.1959510565103355],[0.07360392228241604,1.6185195851991707,-1.0665442416189852,-3.8317025912144915,-0.3423569909301918,0.45703812771533514,2.2962684819567025,-2.491402174132606]],"biases":[-0.08734303969811909,0.19525105974798637,-0.525008083269139,-0.19112947302071018,-0.7997524972845961,-0.4190736528026082,0.2750680016357743,-0.36446758749448216],"inputs":[-0.6079580527462108,0.9176136070813403,-0.13787332260871732,1.8634491993378024,-0.4185848914281395,-0.488906639867947,1.9309336462033382,-0.44685693422048145,0.7334252147372513,0.7408946745307778],"outputs":[-3.0551851072805407,-0.09902982417702136,0.7425212036149785,-0.1107008411392906,-1.5280024074909173,0.05843230145622852,-3.1523771696376786,-1.1193051274987238]}]}};